<?xml version="1.0"?>
<opencv_storage>
<stage9>
  <maxWeakCount>8</maxWeakCount>
  <stageThreshold>-1.1272054910659790e+00</stageThreshold>
  <weakClassifiers>
    <_>
      <internalNodes>
        0 -1 286016 -2.2949492558836937e-02</internalNodes>
      <leafValues>
        7.3333334922790527e-01 -6.3422816991806030e-01</leafValues></_>
    <_>
      <internalNodes>
        0 -1 344635 7.7848043292760849e-03</internalNodes>
      <leafValues>
        -3.6747068166732788e-01 6.6186302900314331e-01</leafValues></_>
    <_>
      <internalNodes>
        0 -1 582067 -1.2215450406074524e-02</internalNodes>
      <leafValues>
        2.8942525386810303e-01 -5.2993756532669067e-01</leafValues></_>
    <_>
      <internalNodes>
        0 -1 28327 -9.4572547823190689e-04</internalNodes>
      <leafValues>
        2.6405671238899231e-01 -5.3943300247192383e-01</leafValues></_>
    <_>
      <internalNodes>
        0 -1 533827 -8.4729143418371677e-04</internalNodes>
      <leafValues>
        3.7069129943847656e-01 -3.5901752114295959e-01</leafValues></_>
    <_>
      <internalNodes>
        0 -1 620327 -5.4898955859243870e-03</internalNodes>
      <leafValues>
        3.2278862595558167e-01 -4.4053789973258972e-01</leafValues></_>
    <_>
      <internalNodes>
        0 -1 617654 -1.4460847014561296e-03</internalNodes>
      <leafValues>
        5.1529043912887573e-01 -3.3947792649269104e-01</leafValues></_>
    <_>
      <internalNodes>
        0 -1 597455 2.1172421984374523e-03</internalNodes>
      <leafValues>
        -2.1362777054309845e-01 6.8974077701568604e-01</leafValues></_></weakClassifiers></stage9>
</opencv_storage>
