<?xml version="1.0"?>
<opencv_storage>
<stage10>
  <maxWeakCount>7</maxWeakCount>
  <stageThreshold>-1.1511976718902588e+00</stageThreshold>
  <weakClassifiers>
    <_>
      <internalNodes>
        0 -1 165634 1.8673439323902130e-01</internalNodes>
      <leafValues>
        -6.9114875793457031e-01 2.0000000298023224e-01</leafValues></_>
    <_>
      <internalNodes>
        0 -1 467717 -1.0438645258545876e-03</internalNodes>
      <leafValues>
        2.1207681298255920e-01 -6.1261755228042603e-01</leafValues></_>
    <_>
      <internalNodes>
        0 -1 260018 6.9966036826372147e-03</internalNodes>
      <leafValues>
        -2.5944691896438599e-01 5.8612263202667236e-01</leafValues></_>
    <_>
      <internalNodes>
        0 -1 343258 4.8337085172533989e-03</internalNodes>
      <leafValues>
        -2.6932471990585327e-01 5.2882081270217896e-01</leafValues></_>
    <_>
      <internalNodes>
        0 -1 562984 -5.7599600404500961e-03</internalNodes>
      <leafValues>
        2.2450408339500427e-01 -6.8358451128005981e-01</leafValues></_>
    <_>
      <internalNodes>
        0 -1 626383 -6.0684810159727931e-04</internalNodes>
      <leafValues>
        3.9470845460891724e-01 -3.6373353004455566e-01</leafValues></_>
    <_>
      <internalNodes>
        0 -1 28937 -1.8031518906354904e-02</internalNodes>
      <leafValues>
        -9.4851666688919067e-01 1.7207089066505432e-01</leafValues></_></weakClassifiers></stage10>
</opencv_storage>
