<?xml version="1.0"?>
<opencv_storage>
<stage8>
  <maxWeakCount>6</maxWeakCount>
  <stageThreshold>-1.0798689126968384e+00</stageThreshold>
  <weakClassifiers>
    <_>
      <internalNodes>
        0 -1 371916 -2.3003298789262772e-02</internalNodes>
      <leafValues>
        7.3913043737411499e-01 -6.3697481155395508e-01</leafValues></_>
    <_>
      <internalNodes>
        0 -1 258140 7.1373833343386650e-03</internalNodes>
      <leafValues>
        -5.1009190082550049e-01 5.0560188293457031e-01</leafValues></_>
    <_>
      <internalNodes>
        0 -1 168085 -5.1151309162378311e-02</internalNodes>
      <leafValues>
        -9.0217238664627075e-01 2.3971718549728394e-01</leafValues></_>
    <_>
      <internalNodes>
        0 -1 636092 -2.2943359799683094e-03</internalNodes>
      <leafValues>
        5.3296661376953125e-01 -3.5828796029090881e-01</leafValues></_>
    <_>
      <internalNodes>
        0 -1 160922 -3.9148511132225394e-04</internalNodes>
      <leafValues>
        5.2680057287216187e-01 -2.9877889156341553e-01</leafValues></_>
    <_>
      <internalNodes>
        0 -1 122585 -7.3026056634262204e-04</internalNodes>
      <leafValues>
        5.7527202367782593e-01 -3.4103202819824219e-01</leafValues></_></weakClassifiers></stage8>
</opencv_storage>
